{
    "feature_names": [
        "PM2.5_current",
        "PM2.5_prev",
        "PM2.5_delta",
        "PM2.5_avg2",
        "PM2.5_avg3",
        "PM10_current",
        "PM10_prev",
        "PM10_delta",
        "PM10_avg2",
        "PM10_avg3",
        "NO2_current",
        "NO2_prev",
        "NO2_delta",
        "NO2_avg2",
        "NO2_avg3",
        "NOx_current",
        "NOx_prev",
        "NOx_delta",
        "NOx_avg2",
        "NOx_avg3",
        "SO2_current",
        "SO2_prev",
        "SO2_delta",
        "SO2_avg2",
        "SO2_avg3",
        "CO_current",
        "CO_prev",
        "CO_delta",
        "CO_avg2",
        "CO_avg3",
        "O3_current",
        "O3_prev",
        "O3_delta",
        "O3_avg2",
        "O3_avg3",
        "AMB_TEMP_current",
        "AMB_TEMP_prev",
        "AMB_TEMP_delta",
        "AMB_TEMP_avg2",
        "AMB_TEMP_avg3",
        "RH_current",
        "RH_prev",
        "RH_delta",
        "RH_avg2",
        "RH_avg3",
        "WIND_SPEED_current",
        "WIND_SPEED_prev",
        "WIND_SPEED_delta",
        "WIND_SPEED_avg2",
        "WIND_SPEED_avg3",
        "RAINFALL_current",
        "RAINFALL_prev",
        "RAINFALL_delta",
        "RAINFALL_avg2",
        "RAINFALL_avg3"
    ],
    "weights": [
        0.4178059336130674,
        0.12871287927106587,
        0.2890930543420046,
        0.2732594064420676,
        0.1921071872259866,
        0.018495557243103557,
        -0.002655794984357872,
        0.021151352227463106,
        0.007919881129372391,
        -0.02698032701099123,
        0.008847294409472153,
        -0.015511692059750623,
        0.024358986469223017,
        -0.0033321988251391894,
        -0.003759910646662332,
        -0.0015943705505684588,
        0.0017679037427353096,
        -0.003362274293303872,
        8.676659608340338e-05,
        0.004877644793453114,
        0.0029296179988233828,
        0.0003078677378625486,
        0.0026217502609608635,
        0.0016187428683429618,
        -0.0014288679737899184,
        0.0012524734149610686,
        0.0006881231191717856,
        0.0005643502957892315,
        0.0009702982670664331,
        0.0008408765244118892,
        0.00879696659871212,
        -0.0011902104829069815,
        0.0099871770816193,
        0.003803378057902693,
        -0.00754078817285157,
        -0.0020696813349451782,
        0.00025507407319920163,
        -0.00232475540814443,
        -0.0009073036308730815,
        0.0004357107598762279,
        0.010276666256476441,
        -0.0058856352915959975,
        0.01616230154807274,
        0.002195515482440269,
        -0.004703049686512876,
        -0.021048404353518867,
        -0.016491241733585335,
        -0.0045571626199335845,
        -0.01876982304355223,
        -0.015491682876466064,
        -0.003074477391658589,
        -0.0024250715104110502,
        -0.0006494058812475005,
        -0.0027497744510347265,
        -0.0026319091948557257
    ],
    "bias": -0.0011523099916246448
}