{
    "feature_names": [
        "PM2.5_current",
        "PM2.5_prev",
        "PM2.5_delta",
        "PM2.5_avg2",
        "PM2.5_avg3",
        "PM10_current",
        "PM10_prev",
        "PM10_delta",
        "PM10_avg2",
        "PM10_avg3",
        "NO2_current",
        "NO2_prev",
        "NO2_delta",
        "NO2_avg2",
        "NO2_avg3",
        "NOx_current",
        "NOx_prev",
        "NOx_delta",
        "NOx_avg2",
        "NOx_avg3",
        "SO2_current",
        "SO2_prev",
        "SO2_delta",
        "SO2_avg2",
        "SO2_avg3",
        "CO_current",
        "CO_prev",
        "CO_delta",
        "CO_avg2",
        "CO_avg3",
        "O3_current",
        "O3_prev",
        "O3_delta",
        "O3_avg2",
        "O3_avg3",
        "AMB_TEMP_current",
        "AMB_TEMP_prev",
        "AMB_TEMP_delta",
        "AMB_TEMP_avg2",
        "AMB_TEMP_avg3",
        "RH_current",
        "RH_prev",
        "RH_delta",
        "RH_avg2",
        "RH_avg3",
        "WIND_SPEED_current",
        "WIND_SPEED_prev",
        "WIND_SPEED_delta",
        "WIND_SPEED_avg2",
        "WIND_SPEED_avg3",
        "RAINFALL_current",
        "RAINFALL_prev",
        "RAINFALL_delta",
        "RAINFALL_avg2",
        "RAINFALL_avg3"
    ],
    "weights": [
        0.4751714213338463,
        0.13720521091213517,
        0.33796621042171915,
        0.30618831612298486,
        0.08840324174462513,
        0.009307506454718773,
        0.010722535949707438,
        -0.0014150294949868707,
        0.010015021202212782,
        -0.03289003993658144,
        0.0038103843072209665,
        0.00027984240784013095,
        0.0035305418993810717,
        0.0020451133575306846,
        -0.007795710697541843,
        -0.0011231642465736053,
        0.0006989988260065674,
        -0.0018221630725803845,
        -0.00021208271028351199,
        0.0006008381444601116,
        0.0046214247644678266,
        0.004129761834896109,
        0.00049166292957171,
        0.004375593299681936,
        -0.001037506715456074,
        0.000645990976928464,
        -4.759394827652476e-05,
        0.0006935849252049469,
        0.00029919851432598895,
        3.7409634215379263e-05,
        0.0003747778494195764,
        0.002738225428843691,
        -0.0023634475794239006,
        0.0015565016391316856,
        -0.003249921714232384,
        2.2770009150982334e-05,
        0.0008683442507384956,
        -0.0008455742415875591,
        0.0004455571299446461,
        0.0004501768588122893,
        -0.00022149123330837017,
        0.001812969788006372,
        -0.002034461021314447,
        0.0007957392773490011,
        -0.0028510747235532883,
        -0.009107691686675372,
        -0.0059530132776274705,
        -0.003154678409048038,
        -0.007530352482151883,
        -0.0028893192852226445,
        -0.003302976957165996,
        -0.0025432409974878094,
        -0.0007597359596782094,
        -0.0029231089773268074,
        -0.0023165752901856103
    ],
    "bias": -0.0002461121731271811
}