{
    "feature_names": [
        "PM2.5_current",
        "PM2.5_prev",
        "PM2.5_delta",
        "PM2.5_avg2",
        "PM2.5_avg3",
        "PM10_current",
        "PM10_prev",
        "PM10_delta",
        "PM10_avg2",
        "PM10_avg3",
        "NO2_current",
        "NO2_prev",
        "NO2_delta",
        "NO2_avg2",
        "NO2_avg3",
        "NOx_current",
        "NOx_prev",
        "NOx_delta",
        "NOx_avg2",
        "NOx_avg3",
        "SO2_current",
        "SO2_prev",
        "SO2_delta",
        "SO2_avg2",
        "SO2_avg3",
        "CO_current",
        "CO_prev",
        "CO_delta",
        "CO_avg2",
        "CO_avg3",
        "O3_current",
        "O3_prev",
        "O3_delta",
        "O3_avg2",
        "O3_avg3",
        "AMB_TEMP_current",
        "AMB_TEMP_prev",
        "AMB_TEMP_delta",
        "AMB_TEMP_avg2",
        "AMB_TEMP_avg3",
        "RH_current",
        "RH_prev",
        "RH_delta",
        "RH_avg2",
        "RH_avg3",
        "WIND_SPEED_current",
        "WIND_SPEED_prev",
        "WIND_SPEED_delta",
        "WIND_SPEED_avg2",
        "WIND_SPEED_avg3",
        "RAINFALL_current",
        "RAINFALL_prev",
        "RAINFALL_delta",
        "RAINFALL_avg2",
        "RAINFALL_avg3"
    ],
    "weights": [
        0.4766948599443366,
        0.13899001264494332,
        0.33770484729940414,
        0.3078424362946356,
        0.08298673866079964,
        0.008870980371349119,
        0.010255371247252676,
        -0.0013843908759018616,
        0.009563175809300604,
        -0.031352284452814724,
        0.00363886361229556,
        0.0005983444877937468,
        0.003040519124502049,
        0.002118604050044788,
        -0.007955507684603284,
        -0.0010580763961693866,
        0.0005551915095642938,
        -0.0016132679057338985,
        -0.0002514424433025409,
        0.0007338944475066717,
        0.004508325422358202,
        0.004074380961947462,
        0.0004339444604107589,
        0.004291353192152832,
        -0.0012047134384098987,
        0.000619000828214597,
        -8.582773312830903e-05,
        0.0007048285613428586,
        0.0002665865475431617,
        3.2500363664982703e-06,
        0.00045214828288954386,
        0.00275379488539248,
        -0.0023016466025027127,
        0.0016029715841410627,
        -0.003504099575675756,
        -2.0424869496004384e-05,
        0.0008914758561318593,
        -0.0009119007256279097,
        0.00043552549331783767,
        0.00036324556757020936,
        -0.0002039633204177575,
        0.0017149013991867228,
        -0.0019188647196041776,
        0.0007554690393844828,
        -0.002700574789043452,
        -0.008618227372907097,
        -0.005547981478722579,
        -0.0030702458941846114,
        -0.007083104425815266,
        -0.0023754487626814974,
        -0.003162934166039376,
        -0.0024936123296604457,
        -0.0006693218363789315,
        -0.002828273247849833,
        -0.0022103315451610824
    ],
    "bias": -0.0002003595430393475
}