{
    "feature_names": [
        "PM2.5_current",
        "PM2.5_prev",
        "PM2.5_delta",
        "PM2.5_avg2",
        "PM2.5_avg3",
        "PM10_current",
        "PM10_prev",
        "PM10_delta",
        "PM10_avg2",
        "PM10_avg3",
        "NO2_current",
        "NO2_prev",
        "NO2_delta",
        "NO2_avg2",
        "NO2_avg3",
        "NOx_current",
        "NOx_prev",
        "NOx_delta",
        "NOx_avg2",
        "NOx_avg3",
        "SO2_current",
        "SO2_prev",
        "SO2_delta",
        "SO2_avg2",
        "SO2_avg3",
        "CO_current",
        "CO_prev",
        "CO_delta",
        "CO_avg2",
        "CO_avg3",
        "O3_current",
        "O3_prev",
        "O3_delta",
        "O3_avg2",
        "O3_avg3",
        "AMB_TEMP_current",
        "AMB_TEMP_prev",
        "AMB_TEMP_delta",
        "AMB_TEMP_avg2",
        "AMB_TEMP_avg3",
        "RH_current",
        "RH_prev",
        "RH_delta",
        "RH_avg2",
        "RH_avg3",
        "WIND_SPEED_current",
        "WIND_SPEED_prev",
        "WIND_SPEED_delta",
        "WIND_SPEED_avg2",
        "WIND_SPEED_avg3",
        "RAINFALL_current",
        "RAINFALL_prev",
        "RAINFALL_delta",
        "RAINFALL_avg2",
        "RAINFALL_avg3"
    ],
    "weights": [
        0.48183913689226837,
        0.14505626851218442,
        0.336782868380094,
        0.31344770270222305,
        0.06466746870062642,
        0.007182770191484989,
        0.008369901335201975,
        -0.0011871311437152857,
        0.007776335763343157,
        -0.025381901004328647,
        0.0032303409658296332,
        0.0015182999026146333,
        0.0017120410632152844,
        0.0023743204342222116,
        -0.008499075812773118,
        -0.0008934614575146852,
        0.00014808064153683188,
        -0.0010415420990517196,
        -0.0003726904079889119,
        0.0011688297315813724,
        0.003985100662692632,
        0.0037271635710726127,
        0.00025793709162014747,
        0.0038561321168825943,
        -0.0018937856431323161,
        0.0005321306660896926,
        -0.00021248351044871478,
        0.00074461417653837,
        0.00015982357782051205,
        -0.00010859736822964185,
        0.0007018622782790566,
        0.002753307008656737,
        -0.0020514447303774824,
        0.0017275846434679667,
        -0.004229462127922517,
        -0.00016288185872748165,
        0.0009692948669147531,
        -0.0011321767256422762,
        0.0004032065040935432,
        6.676760920505026e-05,
        -0.00017023573172834965,
        0.001365511571828203,
        -0.0015357473035562921,
        0.0005976379200499445,
        -0.002127943820892377,
        -0.007025587652033817,
        -0.004299724744324665,
        -0.0027258629077091855,
        -0.005662656198179673,
        -0.0007322469222803994,
        -0.0026533271412518015,
        -0.0023028655804527703,
        -0.000350461560799063,
        -0.002478096360852227,
        -0.0018298463788703693
    ],
    "bias": -4.200994941902896e-05
}