{
    "feature_names": [
        "PM2.5_current",
        "PM2.5_prev",
        "PM2.5_delta",
        "PM2.5_avg2",
        "PM2.5_avg3",
        "PM10_current",
        "PM10_prev",
        "PM10_delta",
        "PM10_avg2",
        "PM10_avg3",
        "NO2_current",
        "NO2_prev",
        "NO2_delta",
        "NO2_avg2",
        "NO2_avg3",
        "NOx_current",
        "NOx_prev",
        "NOx_delta",
        "NOx_avg2",
        "NOx_avg3",
        "SO2_current",
        "SO2_prev",
        "SO2_delta",
        "SO2_avg2",
        "SO2_avg3",
        "CO_current",
        "CO_prev",
        "CO_delta",
        "CO_avg2",
        "CO_avg3",
        "O3_current",
        "O3_prev",
        "O3_delta",
        "O3_avg2",
        "O3_avg3",
        "AMB_TEMP_current",
        "AMB_TEMP_prev",
        "AMB_TEMP_delta",
        "AMB_TEMP_avg2",
        "AMB_TEMP_avg3",
        "RH_current",
        "RH_prev",
        "RH_delta",
        "RH_avg2",
        "RH_avg3",
        "WIND_SPEED_current",
        "WIND_SPEED_prev",
        "WIND_SPEED_delta",
        "WIND_SPEED_avg2",
        "WIND_SPEED_avg3",
        "RAINFALL_current",
        "RAINFALL_prev",
        "RAINFALL_delta",
        "RAINFALL_avg2",
        "RAINFALL_avg3"
    ],
    "weights": [
        0.4717713427156953,
        0.13324801322089966,
        0.33852332949480307,
        0.30250967796829364,
        0.10046642699724856,
        0.010151739202125773,
        0.011577114414546051,
        -0.001425375212418652,
        0.01086442680833555,
        -0.03584685915993967,
        0.0043023031119546,
        -0.0005282177957359838,
        0.004830520907690792,
        0.001887042658109416,
        -0.0074389259434131045,
        -0.0013089931680415185,
        0.0010637472750805348,
        -0.002372740443122243,
        -0.00012262294648049025,
        0.00031370434651256445,
        0.004790027894565212,
        0.00415551453329373,
        0.0006345133612714976,
        0.004472771213929482,
        -0.0007425646726707952,
        0.000708859943657387,
        3.9066709737593114e-05,
        0.0006697932339197375,
        0.00037396332669750536,
        0.00011581171934323056,
        0.00020841947271256844,
        0.0026935905957296774,
        -0.00248517112301688,
        0.0014510050342211869,
        -0.002653836662018341,
        0.00011497516458725413,
        0.0008211662058297969,
        -0.0007061910412425909,
        0.00046807068520843113,
        0.0006418173442943158,
        -0.00027851969840358504,
        0.0020185639196146597,
        -0.0022970836180179637,
        0.0008700221106055386,
        -0.003141101509107107,
        -0.010245139935272133,
        -0.006924453834014928,
        -0.003320686101257401,
        -0.008584796884643918,
        -0.00409231321140109,
        -0.0035914049098680055,
        -0.002642639141080343,
        -0.0009487657687876918,
        -0.0031170220254740496,
        -0.0025399930404631345
    ],
    "bias": -0.0003467616778763274
}