{
    "feature_names": [
        "PM2.5_current",
        "PM2.5_prev",
        "PM2.5_delta",
        "PM2.5_avg2",
        "PM2.5_avg3",
        "PM10_current",
        "PM10_prev",
        "PM10_delta",
        "PM10_avg2",
        "PM10_avg3",
        "NO2_current",
        "NO2_prev",
        "NO2_delta",
        "NO2_avg2",
        "NO2_avg3",
        "NOx_current",
        "NOx_prev",
        "NOx_delta",
        "NOx_avg2",
        "NOx_avg3",
        "SO2_current",
        "SO2_prev",
        "SO2_delta",
        "SO2_avg2",
        "SO2_avg3",
        "CO_current",
        "CO_prev",
        "CO_delta",
        "CO_avg2",
        "CO_avg3",
        "O3_current",
        "O3_prev",
        "O3_delta",
        "O3_avg2",
        "O3_avg3",
        "AMB_TEMP_current",
        "AMB_TEMP_prev",
        "AMB_TEMP_delta",
        "AMB_TEMP_avg2",
        "AMB_TEMP_avg3",
        "RH_current",
        "RH_prev",
        "RH_delta",
        "RH_avg2",
        "RH_avg3",
        "WIND_SPEED_current",
        "WIND_SPEED_prev",
        "WIND_SPEED_delta",
        "WIND_SPEED_avg2",
        "WIND_SPEED_avg3",
        "RAINFALL_current",
        "RAINFALL_prev",
        "RAINFALL_delta",
        "RAINFALL_avg2",
        "RAINFALL_avg3"
    ],
    "weights": [
        0.45705138324495104,
        0.11763282260511213,
        0.3394185606398469,
        0.28734210292502943,
        0.15052169607114357,
        0.011171883736987917,
        0.011291697637564333,
        -0.00011981390057484697,
        0.011231790687275816,
        -0.03870727285116375,
        0.008100722445764418,
        -0.0066407495193456225,
        0.014741471965110102,
        0.0007299864632095055,
        -0.005958624992002437,
        -0.0027558174383245358,
        0.0034192327945901766,
        -0.006175050232914831,
        0.00033170767813281367,
        0.00047587097912303605,
        0.004054781386687455,
        0.002488664336688698,
        0.0015661170499987498,
        0.003271722861688076,
        -0.0009243798425946,
        0.0010257981412443073,
        0.00042149343859487916,
        0.0006043047026493605,
        0.0007236457899196143,
        0.0004927843827984838,
        0.0004727489766874585,
        0.0027573903053404562,
        -0.002284641328652831,
        0.0016150696410140546,
        -0.0011289906475792993,
        0.00020991476408516752,
        0.0008122576785333041,
        -0.0006023429144481749,
        0.0005110862213091418,
        0.0013601546039873887,
        -0.00013435717964119275,
        0.0019566557957545537,
        -0.0020910129753954703,
        0.0009111493080567078,
        -0.0035341515320756467,
        -0.016216530812932988,
        -0.012350043437889561,
        -0.00386648737504331,
        -0.01428328712541143,
        -0.010381301055168235,
        -0.004204218405085465,
        -0.002826399132768009,
        -0.001377819272317401,
        -0.003515308768926638,
        -0.0031352336431704313
    ],
    "bias": -0.0007734801581618126
}