{
    "feature_names": [
        "PM2.5_current",
        "PM2.5_prev",
        "PM2.5_delta",
        "PM2.5_avg2",
        "PM2.5_avg3",
        "PM10_current",
        "PM10_prev",
        "PM10_delta",
        "PM10_avg2",
        "PM10_avg3",
        "NO2_current",
        "NO2_prev",
        "NO2_delta",
        "NO2_avg2",
        "NO2_avg3",
        "NOx_current",
        "NOx_prev",
        "NOx_delta",
        "NOx_avg2",
        "NOx_avg3",
        "SO2_current",
        "SO2_prev",
        "SO2_delta",
        "SO2_avg2",
        "SO2_avg3",
        "CO_current",
        "CO_prev",
        "CO_delta",
        "CO_avg2",
        "CO_avg3",
        "O3_current",
        "O3_prev",
        "O3_delta",
        "O3_avg2",
        "O3_avg3",
        "AMB_TEMP_current",
        "AMB_TEMP_prev",
        "AMB_TEMP_delta",
        "AMB_TEMP_avg2",
        "AMB_TEMP_avg3",
        "RH_current",
        "RH_prev",
        "RH_delta",
        "RH_avg2",
        "RH_avg3",
        "WIND_SPEED_current",
        "WIND_SPEED_prev",
        "WIND_SPEED_delta",
        "WIND_SPEED_avg2",
        "WIND_SPEED_avg3",
        "RAINFALL_current",
        "RAINFALL_prev",
        "RAINFALL_delta",
        "RAINFALL_avg2",
        "RAINFALL_avg3"
    ],
    "weights": [
        0.48489470078283875,
        0.1486804314883655,
        0.336214269294491,
        0.31678756613559844,
        0.05377636390341742,
        0.0060590588051460115,
        0.007077105323728769,
        -0.0010180465185809153,
        0.006568082064437053,
        -0.02139956966745102,
        0.0030733078212365787,
        0.0019743200616821914,
        0.001098987759554704,
        0.0025238139414594505,
        -0.008814914391736843,
        -0.0008208695481987579,
        -4.7879936587973234e-05,
        -0.0007729896116109786,
        -0.00043437474239335335,
        0.0014086964674795007,
        0.0035935855574280337,
        0.0034336254737913083,
        0.00015996008363688041,
        0.003513605515609653,
        -0.0023661623841661423,
        0.0004828956489056207,
        -0.00028623939611185993,
        0.0007691350450174521,
        9.832812639690387e-05,
        -0.00017300609007442396,
        0.0008265741812157678,
        0.0026944188430631072,
        -0.0018678446618471166,
        0.0017604965121395038,
        -0.004517279658853587,
        -0.00023551131811661583,
        0.0010072252427687698,
        -0.0012427365608854255,
        0.00038585696232598687,
        -0.00011066336616127016,
        -0.00015964862404780643,
        0.0011499146515856569,
        -0.001309563275633202,
        0.0004951330137689356,
        -0.0017619575234843277,
        -0.006103238480072588,
        -0.003636534454248435,
        -0.002466704025824201,
        -0.004869886467160967,
        0.00018908321203805342,
        -0.002330940802385016,
        -0.0021706145176529127,
        -0.00016032628473209077,
        -0.0022507776600189234,
        -0.0015908220916427429
    ],
    "bias": 5.536708872584978e-05
}