{
    "feature_names": [
        "PM2.5_current",
        "PM2.5_prev",
        "PM2.5_delta",
        "PM2.5_avg2",
        "PM2.5_avg3",
        "PM10_current",
        "PM10_prev",
        "PM10_delta",
        "PM10_avg2",
        "PM10_avg3",
        "NO2_current",
        "NO2_prev",
        "NO2_delta",
        "NO2_avg2",
        "NO2_avg3",
        "NOx_current",
        "NOx_prev",
        "NOx_delta",
        "NOx_avg2",
        "NOx_avg3",
        "SO2_current",
        "SO2_prev",
        "SO2_delta",
        "SO2_avg2",
        "SO2_avg3",
        "CO_current",
        "CO_prev",
        "CO_delta",
        "CO_avg2",
        "CO_avg3",
        "O3_current",
        "O3_prev",
        "O3_delta",
        "O3_avg2",
        "O3_avg3",
        "AMB_TEMP_current",
        "AMB_TEMP_prev",
        "AMB_TEMP_delta",
        "AMB_TEMP_avg2",
        "AMB_TEMP_avg3",
        "RH_current",
        "RH_prev",
        "RH_delta",
        "RH_avg2",
        "RH_avg3",
        "WIND_SPEED_current",
        "WIND_SPEED_prev",
        "WIND_SPEED_delta",
        "WIND_SPEED_avg2",
        "WIND_SPEED_avg3",
        "RAINFALL_current",
        "RAINFALL_prev",
        "RAINFALL_delta",
        "RAINFALL_avg2",
        "RAINFALL_avg3"
    ],
    "weights": [
        0.4806799049258571,
        0.14368483703328522,
        0.33699506789258593,
        0.312182370979569,
        0.06879820586671283,
        0.00758825251904462,
        0.00883068135119871,
        -0.0012424288321523926,
        0.00820946693512135,
        -0.026817906075913066,
        0.0033034931294123027,
        0.0013292181557927759,
        0.001974274973619801,
        0.002316355642602616,
        -0.008376573619372626,
        -0.0009249009244330498,
        0.00023034106359662586,
        -0.0011552419880298767,
        -0.00034727993041820096,
        0.0010741358854614658,
        0.004119664533036356,
        0.003823860576442111,
        0.0002958039565943987,
        0.003971762554739216,
        -0.001724607582684074,
        0.0005512140415757564,
        -0.00018424204958281026,
        0.0007354560911585178,
        0.00018348599599649562,
        -8.380299886622344e-05,
        0.0006487701392401206,
        0.0027627304940282217,
        -0.002113960354787922,
        0.0017057503166342327,
        -0.0040888487100246935,
        -0.0001321825302565725,
        0.0009525821801213611,
        -0.001084764710377975,
        0.0004101998249323023,
        0.00013386989573553926,
        -0.00017536244651985988,
        0.0014461426501547582,
        -0.001621505096674349,
        0.000635390101817465,
        -0.0022634389448268825,
        -0.007378587920286125,
        -0.00456603459980128,
        -0.002812553320484884,
        -0.005972311260044137,
        -0.0010915934905106816,
        -0.0027722878917873285,
        -0.0023490912434358355,
        -0.0004231966483515258,
        -0.002560689567611527,
        -0.0019181472708732486
    ],
    "bias": -7.826728288612777e-05
}