{
    "feature_names": [
        "PM2.5_current",
        "PM2.5_prev",
        "PM2.5_delta",
        "PM2.5_avg2",
        "PM2.5_avg3",
        "PM10_current",
        "PM10_prev",
        "PM10_delta",
        "PM10_avg2",
        "PM10_avg3",
        "NO2_current",
        "NO2_prev",
        "NO2_delta",
        "NO2_avg2",
        "NO2_avg3",
        "NOx_current",
        "NOx_prev",
        "NOx_delta",
        "NOx_avg2",
        "NOx_avg3",
        "SO2_current",
        "SO2_prev",
        "SO2_delta",
        "SO2_avg2",
        "SO2_avg3",
        "CO_current",
        "CO_prev",
        "CO_delta",
        "CO_avg2",
        "CO_avg3",
        "O3_current",
        "O3_prev",
        "O3_delta",
        "O3_avg2",
        "O3_avg3",
        "AMB_TEMP_current",
        "AMB_TEMP_prev",
        "AMB_TEMP_delta",
        "AMB_TEMP_avg2",
        "AMB_TEMP_avg3",
        "RH_current",
        "RH_prev",
        "RH_delta",
        "RH_avg2",
        "RH_avg3",
        "WIND_SPEED_current",
        "WIND_SPEED_prev",
        "WIND_SPEED_delta",
        "WIND_SPEED_avg2",
        "WIND_SPEED_avg3",
        "RAINFALL_current",
        "RAINFALL_prev",
        "RAINFALL_delta",
        "RAINFALL_avg2",
        "RAINFALL_avg3"
    ],
    "weights": [
        0.44472179650284815,
        0.11508332423034133,
        0.329638472272509,
        0.27990256036659433,
        0.17525312816907115,
        0.011407937730217652,
        0.006982141819443412,
        0.004425795910775811,
        0.00919503977483012,
        -0.033326349246426475,
        0.008881050357670457,
        -0.013741759385775331,
        0.022622809743445858,
        -0.0024303545140522856,
        -0.006309066260991264,
        -0.00220617003153141,
        0.004977229596478236,
        -0.007183399628009808,
        0.0013855297824733922,
        0.003308029677752795,
        0.0032082440967281622,
        0.0009400932172417437,
        0.002268150879486421,
        0.0020741686569849577,
        -0.0015234913233574622,
        0.0012096239614256018,
        0.000609574937189181,
        0.0006000490242363572,
        0.0009095994493074006,
        0.0007163090900484368,
        0.003926402984114637,
        0.002137243355379207,
        0.0017891596287356033,
        0.0030318231697470267,
        -0.0030730970982641133,
        -0.0005446626462658159,
        0.0009124173288353602,
        -0.0014570799751012198,
        0.00018387734128467886,
        0.0013877719998175542,
        0.003763103688788595,
        -0.0013667340976818508,
        0.005129837786470749,
        0.001198184795553387,
        -0.003998025015719023,
        -0.0199950723790559,
        -0.015688009037568888,
        -0.004307063341486911,
        -0.017841540708312616,
        -0.014197444471743703,
        -0.0038042339532045714,
        -0.002639312628378248,
        -0.0011649213248263023,
        -0.003221773290791303,
        -0.0030045267046369148
    ],
    "bias": -0.0010303585822420327
}