{
    "feature_names": [
        "PM2.5_current",
        "PM2.5_prev",
        "PM2.5_delta",
        "PM2.5_avg2",
        "PM2.5_avg3",
        "PM10_current",
        "PM10_prev",
        "PM10_delta",
        "PM10_avg2",
        "PM10_avg3",
        "NO2_current",
        "NO2_prev",
        "NO2_delta",
        "NO2_avg2",
        "NO2_avg3",
        "NOx_current",
        "NOx_prev",
        "NOx_delta",
        "NOx_avg2",
        "NOx_avg3",
        "SO2_current",
        "SO2_prev",
        "SO2_delta",
        "SO2_avg2",
        "SO2_avg3",
        "CO_current",
        "CO_prev",
        "CO_delta",
        "CO_avg2",
        "CO_avg3",
        "O3_current",
        "O3_prev",
        "O3_delta",
        "O3_avg2",
        "O3_avg3",
        "AMB_TEMP_current",
        "AMB_TEMP_prev",
        "AMB_TEMP_delta",
        "AMB_TEMP_avg2",
        "AMB_TEMP_avg3",
        "RH_current",
        "RH_prev",
        "RH_delta",
        "RH_avg2",
        "RH_avg3",
        "WIND_SPEED_current",
        "WIND_SPEED_prev",
        "WIND_SPEED_delta",
        "WIND_SPEED_avg2",
        "WIND_SPEED_avg3",
        "RAINFALL_current",
        "RAINFALL_prev",
        "RAINFALL_delta",
        "RAINFALL_avg2",
        "RAINFALL_avg3"
    ],
    "weights": [
        0.47944079619625457,
        0.14222150063642283,
        0.33721929555984437,
        0.3108311484163361,
        0.07321227312800156,
        0.008006751947955856,
        0.009301869945821141,
        -0.0012951179978636803,
        0.00865431094688824,
        -0.02829901160715819,
        0.0033925328138651014,
        0.001116171711185283,
        0.0022763611026800773,
        0.0022543522625252804,
        -0.00824532044473052,
        -0.0009616339361978547,
        0.0003239797971696659,
        -0.0012856137333677178,
        -0.00031882706951408474,
        0.0009705191785897845,
        0.004253549467677966,
        0.003916357110517375,
        0.00033719235716078526,
        0.00408495328909768,
        -0.0015517744745765073,
        0.0005719032531519496,
        -0.00015387271777775197,
        0.0007257759709296576,
        0.00020901526768711917,
        -5.7054743431494554e-05,
        0.0005894717411520199,
        0.0027661542927539537,
        -0.002176682551601731,
        0.001677813016953037,
        -0.003922332031676063,
        -9.815025776270236e-05,
        0.0009339201200501022,
        -0.001032070377812843,
        0.00041788493114360725,
        0.0002054343149349689,
        -0.000182123228808412,
        0.001531281809900601,
        -0.0017134050387087236,
        0.0006745792905461044,
        -0.002404828999734948,
        -0.007759021376977406,
        -0.004860024780838151,
        -0.00289899659613937,
        -0.006309523078908223,
        -0.0014823159599789268,
        -0.0028970346210254855,
        -0.0023963528021867333,
        -0.0005006818188387819,
        -0.0026466937116060626,
        -0.002010983382313267
    ],
    "bias": -0.00011663687851076203
}