{
    "feature_names": [
        "PM2.5_current",
        "PM2.5_prev",
        "PM2.5_delta",
        "PM2.5_avg2",
        "PM2.5_avg3",
        "PM10_current",
        "PM10_prev",
        "PM10_delta",
        "PM10_avg2",
        "PM10_avg3",
        "NO2_current",
        "NO2_prev",
        "NO2_delta",
        "NO2_avg2",
        "NO2_avg3",
        "NOx_current",
        "NOx_prev",
        "NOx_delta",
        "NOx_avg2",
        "NOx_avg3",
        "SO2_current",
        "SO2_prev",
        "SO2_delta",
        "SO2_avg2",
        "SO2_avg3",
        "CO_current",
        "CO_prev",
        "CO_delta",
        "CO_avg2",
        "CO_avg3",
        "O3_current",
        "O3_prev",
        "O3_delta",
        "O3_avg2",
        "O3_avg3",
        "AMB_TEMP_current",
        "AMB_TEMP_prev",
        "AMB_TEMP_delta",
        "AMB_TEMP_avg2",
        "AMB_TEMP_avg3",
        "RH_current",
        "RH_prev",
        "RH_delta",
        "RH_avg2",
        "RH_avg3",
        "WIND_SPEED_current",
        "WIND_SPEED_prev",
        "WIND_SPEED_delta",
        "WIND_SPEED_avg2",
        "WIND_SPEED_avg3",
        "RAINFALL_current",
        "RAINFALL_prev",
        "RAINFALL_delta",
        "RAINFALL_avg2",
        "RAINFALL_avg3"
    ],
    "weights": [
        0.48578875772646735,
        0.14974295717950464,
        0.33604580054697936,
        0.3177658574529801,
        0.05058930275179584,
        0.0057175691516150665,
        0.006680821039012324,
        -0.0009632518873954004,
        0.006199195095313345,
        -0.020189001743605082,
        0.0030343227764325653,
        0.0020969884010320705,
        0.0009373343754007928,
        0.0025656555887323797,
        -0.008903200157547673,
        -0.0008018486926848459,
        -0.00010058232094255528,
        -0.0007012663717424762,
        -0.00045121550681368345,
        0.0014769614706863676,
        0.0034704227808571193,
        0.003339179550508536,
        0.00013124323034875859,
        0.003404801165682804,
        -0.0025095213587389793,
        0.00046874070533505966,
        -0.0003076596005722539,
        0.0007764003059072833,
        8.054055238142646e-05,
        -0.00019161308007871158,
        0.000857799876790358,
        0.0026665259690229373,
        -0.0018087260922323377,
        0.0017621629229067077,
        -0.004575506009742231,
        -0.00025363044341855564,
        0.0010158653845558049,
        -0.0012694958279743916,
        0.0003811174705685309,
        -0.00016271193209729123,
        -0.00015669332740547563,
        0.0010863728479428806,
        -0.0012430661753481062,
        0.00046483976026871033,
        -0.0016539986577369101,
        -0.00583428978402145,
        -0.003452892026618895,
        -0.0023813977574025655,
        -0.0046435909053206175,
        0.0004521212114248479,
        -0.002234493251639241,
        -0.0021286358797575136,
        -0.00010585737188169678,
        -0.0021815645656983293,
        -0.0015191690035651507
    ],
    "bias": 8.439072911989561e-05
}