{
    "feature_names": [
        "PM2.5_current",
        "PM2.5_prev",
        "PM2.5_delta",
        "PM2.5_avg2",
        "PM2.5_avg3",
        "PM10_current",
        "PM10_prev",
        "PM10_delta",
        "PM10_avg2",
        "PM10_avg3",
        "NO2_current",
        "NO2_prev",
        "NO2_delta",
        "NO2_avg2",
        "NO2_avg3",
        "NOx_current",
        "NOx_prev",
        "NOx_delta",
        "NOx_avg2",
        "NOx_avg3",
        "SO2_current",
        "SO2_prev",
        "SO2_delta",
        "SO2_avg2",
        "SO2_avg3",
        "CO_current",
        "CO_prev",
        "CO_delta",
        "CO_avg2",
        "CO_avg3",
        "O3_current",
        "O3_prev",
        "O3_delta",
        "O3_avg2",
        "O3_avg3",
        "AMB_TEMP_current",
        "AMB_TEMP_prev",
        "AMB_TEMP_delta",
        "AMB_TEMP_avg2",
        "AMB_TEMP_avg3",
        "RH_current",
        "RH_prev",
        "RH_delta",
        "RH_avg2",
        "RH_avg3",
        "WIND_SPEED_current",
        "WIND_SPEED_prev",
        "WIND_SPEED_delta",
        "WIND_SPEED_avg2",
        "WIND_SPEED_avg3",
        "RAINFALL_current",
        "RAINFALL_prev",
        "RAINFALL_delta",
        "RAINFALL_avg2",
        "RAINFALL_avg3"
    ],
    "weights": [
        0.46555393704027953,
        0.12616119001847817,
        0.33939274702180755,
        0.29585756352937126,
        0.12233949485651459,
        0.011135973955374271,
        0.012323554603710419,
        -0.0011875806483346739,
        0.011729764279541826,
        -0.039192734807053556,
        0.005660445270453428,
        -0.0024623854147551474,
        0.008122830685208653,
        0.001599029927849249,
        -0.006758774392287288,
        -0.0018422384491077876,
        0.0018976759591400954,
        -0.003739914408248064,
        2.7718755016157106e-05,
        -5.232071453991207e-05,
        0.0047573947883686055,
        0.003794973309414441,
        0.0009624214789541832,
        0.00427618404889154,
        -0.0005328760169705761,
        0.000834878165067974,
        0.00020192218946586926,
        0.0006329559756020497,
        0.0005184001772669404,
        0.0002685325944388425,
        -4.05617120139013e-06,
        0.0026462921649828084,
        -0.002650348336183992,
        0.0013211179968907819,
        -0.0016335251333596012,
        0.0002451664267329005,
        0.000766400698477006,
        -0.0005212342717441399,
        0.0005057835626048529,
        0.0009777753357990005,
        -0.0004372357701420962,
        0.002307024455168695,
        -0.00274426022531054,
        0.0009348943425133213,
        -0.0034624670895210784,
        -0.0125487919465674,
        -0.008982595503649556,
        -0.0035661964429178255,
        -0.010765693725108655,
        -0.006539760544537516,
        -0.004003628579455056,
        -0.0027785224795657923,
        -0.0012251060998892318,
        -0.0033910755295103344,
        -0.0028832355115110944
    ],
    "bias": -0.0005276321324378066
}