{
    "feature_names": [
        "PM2.5_current",
        "PM2.5_prev",
        "PM2.5_delta",
        "PM2.5_avg2",
        "PM2.5_avg3",
        "PM10_current",
        "PM10_prev",
        "PM10_delta",
        "PM10_avg2",
        "PM10_avg3",
        "NO2_current",
        "NO2_prev",
        "NO2_delta",
        "NO2_avg2",
        "NO2_avg3",
        "NOx_current",
        "NOx_prev",
        "NOx_delta",
        "NOx_avg2",
        "NOx_avg3",
        "SO2_current",
        "SO2_prev",
        "SO2_delta",
        "SO2_avg2",
        "SO2_avg3",
        "CO_current",
        "CO_prev",
        "CO_delta",
        "CO_avg2",
        "CO_avg3",
        "O3_current",
        "O3_prev",
        "O3_delta",
        "O3_avg2",
        "O3_avg3",
        "AMB_TEMP_current",
        "AMB_TEMP_prev",
        "AMB_TEMP_delta",
        "AMB_TEMP_avg2",
        "AMB_TEMP_avg3",
        "RH_current",
        "RH_prev",
        "RH_delta",
        "RH_avg2",
        "RH_avg3",
        "WIND_SPEED_current",
        "WIND_SPEED_prev",
        "WIND_SPEED_delta",
        "WIND_SPEED_avg2",
        "WIND_SPEED_avg3",
        "RAINFALL_current",
        "RAINFALL_prev",
        "RAINFALL_delta",
        "RAINFALL_avg2",
        "RAINFALL_avg3"
    ],
    "weights": [
        0.48394141777258876,
        0.1475484805345355,
        0.33639293723806724,
        0.3157449491535571,
        0.05717447929630828,
        0.00641731028250023,
        0.007491339950709447,
        -0.001074029668207415,
        0.006954325116604517,
        -0.022669452110226983,
        0.0031177661187585886,
        0.0018382822470686371,
        0.0012794838716902567,
        0.0024780241829136566,
        -0.008718185410562835,
        -0.0008421607511367514,
        1.03942578880104e-05,
        -0.0008525550090249545,
        -0.0004158832466243561,
        0.0013351662389168737,
        0.003720904406506619,
        0.003530463709237696,
        0.00019044069726904025,
        0.003625684057872148,
        -0.0022154394293610008,
        0.0004981062867902748,
        -0.00026332551142269913,
        0.0007614317982129358,
        0.00011739038768381169,
        -0.0001530502749192801,
        0.0007904267961682807,
        0.0027185671382778096,
        -0.0019281403421093158,
        0.0017544969672231162,
        -0.004441544574832257,
        -0.00021444259547107316,
        0.0009966149428928353,
        -0.0012110575383639489,
        0.00039108617371079175,
        -5.5229967453338174e-05,
        -0.00016273664557242014,
        0.0012175162554567806,
        -0.0013802529010289446,
        0.0005273898049421978,
        -0.001876952133579674,
        -0.0063902102675826395,
        -0.003837509429937751,
        -0.0025527008376449033,
        -0.005113859848760638,
        -9.454975060803115e-05,
        -0.002432769679910297,
        -0.0022136309781175824,
        -0.00021913870179272326,
        -0.0023232003290139004,
        -0.0016663551086084443
    ],
    "bias": 2.4693182478970284e-05
}