{
    "feature_names": [
        "PM2.5_current",
        "PM2.5_prev",
        "PM2.5_delta",
        "PM2.5_avg2",
        "PM2.5_avg3",
        "PM10_current",
        "PM10_prev",
        "PM10_delta",
        "PM10_avg2",
        "PM10_avg3",
        "NO2_current",
        "NO2_prev",
        "NO2_delta",
        "NO2_avg2",
        "NO2_avg3",
        "NOx_current",
        "NOx_prev",
        "NOx_delta",
        "NOx_avg2",
        "NOx_avg3",
        "SO2_current",
        "SO2_prev",
        "SO2_delta",
        "SO2_avg2",
        "SO2_avg3",
        "CO_current",
        "CO_prev",
        "CO_delta",
        "CO_avg2",
        "CO_avg3",
        "O3_current",
        "O3_prev",
        "O3_delta",
        "O3_avg2",
        "O3_avg3",
        "AMB_TEMP_current",
        "AMB_TEMP_prev",
        "AMB_TEMP_delta",
        "AMB_TEMP_avg2",
        "AMB_TEMP_avg3",
        "RH_current",
        "RH_prev",
        "RH_delta",
        "RH_avg2",
        "RH_avg3",
        "WIND_SPEED_current",
        "WIND_SPEED_prev",
        "WIND_SPEED_delta",
        "WIND_SPEED_avg2",
        "WIND_SPEED_avg3",
        "RAINFALL_current",
        "RAINFALL_prev",
        "RAINFALL_delta",
        "RAINFALL_avg2",
        "RAINFALL_avg3"
    ],
    "weights": [
        0.47353434661078847,
        0.135294908741652,
        0.338239437869141,
        0.3044146276762162,
        0.09421665933587,
        0.009737782472295196,
        0.01116847485048993,
        -0.0014306923781930165,
        0.010453128661392247,
        -0.03440081582929813,
        0.0040271376542928014,
        -9.115928604977851e-05,
        0.0041182969403428075,
        0.0019679891841216522,
        -0.007624293394542698,
        -0.001204849879992707,
        0.0008668613548717837,
        -0.0020717112348646897,
        -0.0001689942625604586,
        0.00045959491955299627,
        0.004717781069828347,
        0.004160007158553174,
        0.0005577739112751955,
        0.004438894114190782,
        -0.0008811606857195333,
        0.0006757793693487055,
        -6.100336446454102e-06,
        0.0006818797057951161,
        0.00033483951645114484,
        7.476022476454732e-05,
        0.0002928570669284357,
        0.0027174943402995594,
        -0.002424637273370902,
        0.001505175703614048,
        -0.002965739608226573,
        6.819337105233769e-05,
        0.0008446389555221666,
        -0.0007764455844698786,
        0.0004564161632871564,
        0.0005429231904427428,
        -0.000245653627016088,
        0.0019145518251526953,
        -0.0021602054521684968,
        0.0008344490990683038,
        -0.00299937078731347,
        -0.00964669935126289,
        -0.00640854100015437,
        -0.0032381583511086796,
        -0.008027620175709037,
        -0.0034581958287205673,
        -0.0034463777023254157,
        -0.0025930994695670855,
        -0.000853278232758356,
        -0.003019738585946134,
        -0.00242670608268329
    ],
    "bias": -0.0002947997820389111
}