{
    "feature_names": [
        "PM2.5_current",
        "PM2.5_prev",
        "PM2.5_delta",
        "PM2.5_avg2",
        "PM2.5_avg3",
        "PM10_current",
        "PM10_prev",
        "PM10_delta",
        "PM10_avg2",
        "PM10_avg3",
        "NO2_current",
        "NO2_prev",
        "NO2_delta",
        "NO2_avg2",
        "NO2_avg3",
        "NOx_current",
        "NOx_prev",
        "NOx_delta",
        "NOx_avg2",
        "NOx_avg3",
        "SO2_current",
        "SO2_prev",
        "SO2_delta",
        "SO2_avg2",
        "SO2_avg3",
        "CO_current",
        "CO_prev",
        "CO_delta",
        "CO_avg2",
        "CO_avg3",
        "O3_current",
        "O3_prev",
        "O3_delta",
        "O3_avg2",
        "O3_avg3",
        "AMB_TEMP_current",
        "AMB_TEMP_prev",
        "AMB_TEMP_delta",
        "AMB_TEMP_avg2",
        "AMB_TEMP_avg3",
        "RH_current",
        "RH_prev",
        "RH_delta",
        "RH_avg2",
        "RH_avg3",
        "WIND_SPEED_current",
        "WIND_SPEED_prev",
        "WIND_SPEED_delta",
        "WIND_SPEED_avg2",
        "WIND_SPEED_avg3",
        "RAINFALL_current",
        "RAINFALL_prev",
        "RAINFALL_delta",
        "RAINFALL_avg2",
        "RAINFALL_avg3"
    ],
    "weights": [
        0.47811502271388395,
        0.1406591803455377,
        0.3374558423683581,
        0.309387101529706,
        0.07793302253676639,
        0.008435604978883115,
        0.009778893796611555,
        -0.0013432888177268556,
        0.009107249387747004,
        -0.029815246426817092,
        0.0035022535841577377,
        0.0008745351966093948,
        0.0026277183875486037,
        0.00218839439038367,
        -0.008105107604396557,
        -0.0010052753219584158,
        0.0004313226851272649,
        -0.0014365980070858788,
        -0.00028697631841556896,
        0.0008572300997911099,
        0.0043842256544300625,
        0.004001328650226191,
        0.00038289700420395244,
        0.004192777152328131,
        -0.0013774767631816052,
        0.0005944118817274037,
        -0.00012115379755440457,
        0.0007155656792817608,
        0.00023662904208651735,
        -2.812759066343573e-05,
        0.0005238825363517588,
        0.002763211609891892,
        -0.002239329073539933,
        0.0016435470731218768,
        -0.0037279443003585687,
        -6.084104912179924e-05,
        0.0009134651939996365,
        -0.0009743062431214846,
        0.0004263120724388295,
        0.0002817806469070621,
        -0.0001913045123204482,
        0.0016209095808817405,
        -0.0018122140932019055,
        0.0007148025342806569,
        -0.002551066598636419,
        -0.00817066151866479,
        -0.005185698466344577,
        -0.0029849630523203726,
        -0.006678179992505134,
        -0.0019085664887640045,
        -0.0030273840412899005,
        -0.0024445730334509293,
        -0.0005828110078389787,
        -0.002735978537370361,
        -0.0021083979814503205
    ],
    "bias": -0.00015727374801379423
}