{
    "feature_names": [
        "PM2.5_current",
        "PM2.5_prev",
        "PM2.5_delta",
        "PM2.5_avg2",
        "PM2.5_avg3",
        "PM10_current",
        "PM10_prev",
        "PM10_delta",
        "PM10_avg2",
        "PM10_avg3",
        "NO2_current",
        "NO2_prev",
        "NO2_delta",
        "NO2_avg2",
        "NO2_avg3",
        "NOx_current",
        "NOx_prev",
        "NOx_delta",
        "NOx_avg2",
        "NOx_avg3",
        "SO2_current",
        "SO2_prev",
        "SO2_delta",
        "SO2_avg2",
        "SO2_avg3",
        "CO_current",
        "CO_prev",
        "CO_delta",
        "CO_avg2",
        "CO_avg3",
        "O3_current",
        "O3_prev",
        "O3_delta",
        "O3_avg2",
        "O3_avg3",
        "AMB_TEMP_current",
        "AMB_TEMP_prev",
        "AMB_TEMP_delta",
        "AMB_TEMP_avg2",
        "AMB_TEMP_avg3",
        "RH_current",
        "RH_prev",
        "RH_delta",
        "RH_avg2",
        "RH_avg3",
        "WIND_SPEED_current",
        "WIND_SPEED_prev",
        "WIND_SPEED_delta",
        "WIND_SPEED_avg2",
        "WIND_SPEED_avg3",
        "RAINFALL_current",
        "RAINFALL_prev",
        "RAINFALL_delta",
        "RAINFALL_avg2",
        "RAINFALL_avg3"
    ],
    "weights": [
        0.46307846382876716,
        0.12344702666894306,
        0.33963143715983013,
        0.29326274524885093,
        0.1308950265850319,
        0.011297248856762417,
        0.012277887990368228,
        -0.0009806391336042697,
        0.011787568423564798,
        -0.0396638539971786,
        0.006360233927585118,
        -0.0034547156392087685,
        0.009814949566793948,
        0.0014527591441882747,
        -0.006478693738009084,
        -0.0021240615129908638,
        0.0022931797784983303,
        -0.004417241291489379,
        8.455913275374241e-05,
        -7.043732379535876e-05,
        0.004617165634492544,
        0.0034957018352388385,
        0.0011214637992536882,
        0.004056433734865711,
        -0.0005765085865533607,
        0.0008891700123132749,
        0.0002675945729315597,
        0.0006215754393816639,
        0.0005783822926224377,
        0.0003329073946849851,
        -8.566986891845965e-06,
        0.0026621223079145396,
        -0.002670689294806182,
        0.0013267776605114202,
        -0.0013322065752223089,
        0.00027128000780992067,
        0.0007622879792119369,
        -0.0004910079714020555,
        0.0005167839935108322,
        0.0011027427046796379,
        -0.00048184492258676793,
        0.0023497607356114205,
        -0.002831605658197927,
        0.0009339579065123484,
        -0.003510115954706834,
        -0.013564917165087008,
        -0.009912938723220261,
        -0.00365197844186682,
        -0.011738927944153845,
        -0.007614856378005583,
        -0.00411312198626321,
        -0.0028122270462039513,
        -0.001300894940059232,
        -0.0034626745162334898,
        -0.002988243796534847
    ],
    "bias": -0.0005993569472936629
}