{
    "feature_names": [
        "PM2.5_current",
        "PM2.5_prev",
        "PM2.5_delta",
        "PM2.5_avg2",
        "PM2.5_avg3",
        "PM10_current",
        "PM10_prev",
        "PM10_delta",
        "PM10_avg2",
        "PM10_avg3",
        "NO2_current",
        "NO2_prev",
        "NO2_delta",
        "NO2_avg2",
        "NO2_avg3",
        "NOx_current",
        "NOx_prev",
        "NOx_delta",
        "NOx_avg2",
        "NOx_avg3",
        "SO2_current",
        "SO2_prev",
        "SO2_delta",
        "SO2_avg2",
        "SO2_avg3",
        "CO_current",
        "CO_prev",
        "CO_delta",
        "CO_avg2",
        "CO_avg3",
        "O3_current",
        "O3_prev",
        "O3_delta",
        "O3_avg2",
        "O3_avg3",
        "AMB_TEMP_current",
        "AMB_TEMP_prev",
        "AMB_TEMP_delta",
        "AMB_TEMP_avg2",
        "AMB_TEMP_avg3",
        "RH_current",
        "RH_prev",
        "RH_delta",
        "RH_avg2",
        "RH_avg3",
        "WIND_SPEED_current",
        "WIND_SPEED_prev",
        "WIND_SPEED_delta",
        "WIND_SPEED_avg2",
        "WIND_SPEED_avg3",
        "RAINFALL_current",
        "RAINFALL_prev",
        "RAINFALL_delta",
        "RAINFALL_avg2",
        "RAINFALL_avg3"
    ],
    "weights": [
        0.45273778795403,
        0.11509493147819334,
        0.3376428564758414,
        0.2839163597161095,
        0.161994998721885,
        0.010932118746925977,
        0.009954244380548238,
        0.0009778743663793352,
        0.010443181563736796,
        -0.03677486069198548,
        0.008829663230180397,
        -0.009493695380833417,
        0.0183233586110138,
        -0.0003320160753264056,
        -0.0059703741635491305,
        -0.0028192722325688963,
        0.004255310799032507,
        -0.007074583031601524,
        0.0007180192832317902,
        0.0014475177169352435,
        0.0036374261993785692,
        0.001757519781878995,
        0.0018799064174995536,
        0.0026974729906287715,
        -0.0012281070261623921,
        0.0011127661685801703,
        0.0005118436414187188,
        0.0006009225271613864,
        0.0008123049049994611,
        0.0005947573395644267,
        0.0014767277886913544,
        0.0027205619908687467,
        -0.0012438342021772188,
        0.0020986448897801417,
        -0.0015763095707873754,
        8.001869956152003e-06,
        0.000881357883453103,
        -0.0008733560134969932,
        0.0004446798767045351,
        0.0014566319281951491,
        0.0009134602160724374,
        0.000990414939936796,
        -7.695472386406645e-05,
        0.0009519375780046414,
        -0.0036277887720078733,
        -0.017977632903142506,
        -0.013938336132698724,
        -0.004039296770443661,
        -0.015957984517920736,
        -0.012174029650816438,
        -0.00410978153513225,
        -0.0027734586205933024,
        -0.001336322914538908,
        -0.0034416200778626966,
        -0.0031313533777508
    ],
    "bias": -0.0008876964356448388
}