{
    "feature_names": [
        "PM2.5_current",
        "PM2.5_prev",
        "PM2.5_delta",
        "PM2.5_avg2",
        "PM2.5_avg3",
        "PM10_current",
        "PM10_prev",
        "PM10_delta",
        "PM10_avg2",
        "PM10_avg3",
        "NO2_current",
        "NO2_prev",
        "NO2_delta",
        "NO2_avg2",
        "NO2_avg3",
        "NOx_current",
        "NOx_prev",
        "NOx_delta",
        "NOx_avg2",
        "NOx_avg3",
        "SO2_current",
        "SO2_prev",
        "SO2_delta",
        "SO2_avg2",
        "SO2_avg3",
        "CO_current",
        "CO_prev",
        "CO_delta",
        "CO_avg2",
        "CO_avg3",
        "O3_current",
        "O3_prev",
        "O3_delta",
        "O3_avg2",
        "O3_avg3",
        "AMB_TEMP_current",
        "AMB_TEMP_prev",
        "AMB_TEMP_delta",
        "AMB_TEMP_avg2",
        "AMB_TEMP_avg3",
        "RH_current",
        "RH_prev",
        "RH_delta",
        "RH_avg2",
        "RH_avg3",
        "WIND_SPEED_current",
        "WIND_SPEED_prev",
        "WIND_SPEED_delta",
        "WIND_SPEED_avg2",
        "WIND_SPEED_avg3",
        "RAINFALL_current",
        "RAINFALL_prev",
        "RAINFALL_delta",
        "RAINFALL_avg2",
        "RAINFALL_avg3"
    ],
    "weights": [
        0.4603033262798055,
        0.12056917704579212,
        0.3397341492340193,
        0.2904362516627981,
        0.14023944322209306,
        0.011318797537588987,
        0.011975203638295621,
        -0.0006564061007050277,
        0.011647000587941806,
        -0.039573795323325604,
        0.007196395077056699,
        -0.004772319176816243,
        0.011968714253872957,
        0.0012120379501203047,
        -0.006188222590124853,
        -0.002451658894676523,
        0.002783783224035034,
        -0.0052354421187116645,
        0.00016606216467925772,
        5.875492043899441e-05,
        0.004386074975517044,
        0.0030674937095832603,
        0.0013185812659337577,
        0.003726784342550138,
        -0.0007032988241841848,
        0.0009520716892812045,
        0.0003404155050497791,
        0.0006116561842313703,
        0.0006462435971655152,
        0.00040676939942275694,
        9.986358851541136e-05,
        0.002704310666888555,
        -0.002604447078372951,
        0.0014020871277020577,
        -0.0011271043766640887,
        0.00027047874295066886,
        0.0007742523209562378,
        -0.0005037735780056089,
        0.000522365531953359,
        0.0012324184083995964,
        -0.0004428255584438599,
        0.0022859379539794597,
        -0.0027287635124230458,
        0.0009215561977678187,
        -0.0035248630858173723,
        -0.014767749937033395,
        -0.011020394603544077,
        -0.0037473553334892644,
        -0.012894072270289025,
        -0.008878351300611256,
        -0.0041886615152306106,
        -0.0028320353199666583,
        -0.0013566261952638885,
        -0.003510348417598532,
        -0.0030773849727106306
    ],
    "bias": -0.0006799035326039648
}