{
    "feature_names": [
        "PM2.5_current",
        "PM2.5_prev",
        "PM2.5_delta",
        "PM2.5_avg2",
        "PM2.5_avg3",
        "PM10_current",
        "PM10_prev",
        "PM10_delta",
        "PM10_avg2",
        "PM10_avg3",
        "NO2_current",
        "NO2_prev",
        "NO2_delta",
        "NO2_avg2",
        "NO2_avg3",
        "NOx_current",
        "NOx_prev",
        "NOx_delta",
        "NOx_avg2",
        "NOx_avg3",
        "SO2_current",
        "SO2_prev",
        "SO2_delta",
        "SO2_avg2",
        "SO2_avg3",
        "CO_current",
        "CO_prev",
        "CO_delta",
        "CO_avg2",
        "CO_avg3",
        "O3_current",
        "O3_prev",
        "O3_delta",
        "O3_avg2",
        "O3_avg3",
        "AMB_TEMP_current",
        "AMB_TEMP_prev",
        "AMB_TEMP_delta",
        "AMB_TEMP_avg2",
        "AMB_TEMP_avg3",
        "RH_current",
        "RH_prev",
        "RH_delta",
        "RH_avg2",
        "RH_avg3",
        "WIND_SPEED_current",
        "WIND_SPEED_prev",
        "WIND_SPEED_delta",
        "WIND_SPEED_avg2",
        "WIND_SPEED_avg3",
        "RAINFALL_current",
        "RAINFALL_prev",
        "RAINFALL_delta",
        "RAINFALL_avg2",
        "RAINFALL_avg3"
    ],
    "weights": [
        0.46780362170458606,
        0.12869408496820076,
        0.3391095367363872,
        0.2982488533363874,
        0.11446774943309304,
        0.01087186606024836,
        0.012188703821980604,
        -0.0013168377617307206,
        0.01153028494111402,
        -0.03832302343621956,
        0.005097670382416141,
        -0.0016816203081497835,
        0.00677929069056601,
        0.0017080250371332895,
        -0.007011009750707947,
        -0.0016175874931989142,
        0.0015703011284328642,
        -0.0031878886216319545,
        -2.3643182383020816e-05,
        4.0762279584353086e-05,
        0.004822629917616521,
        0.003990205731633888,
        0.0008324241859826472,
        0.00440641782462522,
        -0.0005561259658337102,
        0.0007875278359595789,
        0.00014245404827946097,
        0.0006450737876800678,
        0.0004649909421195389,
        0.00021176159313335142,
        4.987866704291985e-05,
        0.0026517164480493642,
        -0.0026018377810062255,
        0.0013507975575462123,
        -0.0019733729964566513,
        0.00020637930958255018,
        0.0007799844173308349,
        -0.0005736051077483214,
        0.0004931818634565962,
        0.0008591240507295129,
        -0.0003766720457161749,
        0.0022226071829233814,
        -0.002599279228639275,
        0.000922967568603615,
        -0.0033803439920573842,
        -0.011676193752778622,
        -0.008192304200197738,
        -0.0034838895525809606,
        -0.009934248976488449,
        -0.005613135930646091,
        -0.0038747929804554227,
        -0.002736996018387365,
        -0.0011377969620680758,
        -0.003305894499421306,
        -0.002770646745413428
    ],
    "bias": -0.00046244214666145135
}