{
    "feature_names": [
        "PM2.5_current",
        "PM2.5_prev",
        "PM2.5_delta",
        "PM2.5_avg2",
        "PM2.5_avg3",
        "PM10_current",
        "PM10_prev",
        "PM10_delta",
        "PM10_avg2",
        "PM10_avg3",
        "NO2_current",
        "NO2_prev",
        "NO2_delta",
        "NO2_avg2",
        "NO2_avg3",
        "NOx_current",
        "NOx_prev",
        "NOx_delta",
        "NOx_avg2",
        "NOx_avg3",
        "SO2_current",
        "SO2_prev",
        "SO2_delta",
        "SO2_avg2",
        "SO2_avg3",
        "CO_current",
        "CO_prev",
        "CO_delta",
        "CO_avg2",
        "CO_avg3",
        "O3_current",
        "O3_prev",
        "O3_delta",
        "O3_avg2",
        "O3_avg3",
        "AMB_TEMP_current",
        "AMB_TEMP_prev",
        "AMB_TEMP_delta",
        "AMB_TEMP_avg2",
        "AMB_TEMP_avg3",
        "RH_current",
        "RH_prev",
        "RH_delta",
        "RH_avg2",
        "RH_avg3",
        "WIND_SPEED_current",
        "WIND_SPEED_prev",
        "WIND_SPEED_delta",
        "WIND_SPEED_avg2",
        "WIND_SPEED_avg3",
        "RAINFALL_current",
        "RAINFALL_prev",
        "RAINFALL_delta",
        "RAINFALL_avg2",
        "RAINFALL_avg3"
    ],
    "weights": [
        0.48292451305065287,
        0.14634220482207358,
        0.3365823082285936,
        0.3146333589363593,
        0.06079916594365721,
        0.006792084963213438,
        0.007922732511080126,
        -0.001130647547864965,
        0.007357408737146469,
        -0.02399768012235608,
        0.003169380638952376,
        0.0016870354531335926,
        0.0014823451858190977,
        0.0024282080460430394,
        -0.008612926482201032,
        -0.0008661583105101217,
        7.528724928445843e-05,
        -0.0009414455597947711,
        -0.000395435530612815,
        0.0012555196057155828,
        0.0038517285716376526,
        0.0036287530247796724,
        0.0002229755468581114,
        0.0037402407982086634,
        -0.002057751442519167,
        0.0005144769393964381,
        -0.0002387889851647567,
        0.0007532659245611539,
        0.000137843977115864,
        -0.00013162646598893866,
        0.0007489764522671408,
        0.00273839387853087,
        -0.0019894174262635295,
        0.0017436851653990732,
        -0.0043463066512850704,
        -0.00019027399832974927,
        0.000983979245201565,
        -0.0011742532435313605,
        0.0003968526234358191,
        3.8274256694012215e-06,
        -0.0001661663263013594,
        0.0012893366186591186,
        -0.0014555029449602286,
        0.0005615851461789012,
        -0.0019989953548355233,
        -0.006696964484701023,
        -0.004057799260674586,
        -0.002639165224026471,
        -0.0053773818726882165,
        -0.0004008526109399048,
        -0.002540180862558825,
        -0.0022577102703308645,
        -0.00028247059222797776,
        -0.0023989455664448016,
        -0.0017459681746171652
    ],
    "bias": -7.729776015697876e-06
}