{
    "feature_names": [
        "PM2.5_current",
        "PM2.5_prev",
        "PM2.5_delta",
        "PM2.5_avg2",
        "PM2.5_avg3",
        "PM10_current",
        "PM10_prev",
        "PM10_delta",
        "PM10_avg2",
        "PM10_avg3",
        "NO2_current",
        "NO2_prev",
        "NO2_delta",
        "NO2_avg2",
        "NO2_avg3",
        "NOx_current",
        "NOx_prev",
        "NOx_delta",
        "NOx_avg2",
        "NOx_avg3",
        "SO2_current",
        "SO2_prev",
        "SO2_delta",
        "SO2_avg2",
        "SO2_avg3",
        "CO_current",
        "CO_prev",
        "CO_delta",
        "CO_avg2",
        "CO_avg3",
        "O3_current",
        "O3_prev",
        "O3_delta",
        "O3_avg2",
        "O3_avg3",
        "AMB_TEMP_current",
        "AMB_TEMP_prev",
        "AMB_TEMP_delta",
        "AMB_TEMP_avg2",
        "AMB_TEMP_avg3",
        "RH_current",
        "RH_prev",
        "RH_delta",
        "RH_avg2",
        "RH_avg3",
        "WIND_SPEED_current",
        "WIND_SPEED_prev",
        "WIND_SPEED_delta",
        "WIND_SPEED_avg2",
        "WIND_SPEED_avg3",
        "RAINFALL_current",
        "RAINFALL_prev",
        "RAINFALL_delta",
        "RAINFALL_avg2",
        "RAINFALL_avg3"
    ],
    "weights": [
        0.4698674395514566,
        0.13105216365046005,
        0.338815275901003,
        0.3004598016009541,
        0.10719861444122464,
        0.010535808369547577,
        0.011926856741880073,
        -0.001391048372330882,
        0.011231332555713399,
        -0.03717712923987093,
        0.004652444102869051,
        -0.0010497447552624004,
        0.00570218885813158,
        0.0018013496738034296,
        -0.007236081994294977,
        -0.00144334490407502,
        0.001295703805841058,
        -0.002739048709916239,
        -7.382054911697908e-05,
        0.0001699968319775785,
        0.004828841406327621,
        0.004104047760074499,
        0.0007247936462531186,
        0.004466444583201083,
        -0.0006305308847073955,
        0.0007458504028607166,
        8.83938435130464e-05,
        0.0006574565593476169,
        0.0004171221231868991,
        0.00016120630405426405,
        0.000125152256471124,
        0.0026699150592658398,
        -0.002544762802794466,
        0.001397533657868543,
        -0.002319603360929481,
        0.00016175871781650943,
        0.000799066372784959,
        -0.000637307654968495,
        0.00048041254530064247,
        0.0007471495659492062,
        -0.00032204599382815516,
        0.0021228223404251003,
        -0.002444868334252966,
        0.0009003881732984788,
        -0.0032705034327430937,
        -0.010915941345680528,
        -0.007513507667038558,
        -0.0034024336786422004,
        -0.009214724506359871,
        -0.004804882843645253,
        -0.003735480983652919,
        -0.0026910290719044704,
        -0.0010444519117484747,
        -0.0032132550277786053,
        -0.002655257394469735
    ],
    "bias": -0.00040244129567893855
}